    0.737731744732556677E-02    0.108558369841844402E+00    0.742816868502402361E+00   -0.266101607461527578E+02
    0.158876080241653062E+00    0.956448040515441855E-01    0.716686093779196676E+00   -0.257466735479012527E+02
    0.115222002361533404E+00    0.111797722941263847E+00    0.742235541326138337E+00   -0.249408140844221293E+02
    0.261377845720653368E+00    0.606587647493586832E-01    0.584033579540455094E+00   -0.248405818428923908E+02
    0.364302478531055129E+00    0.143616903650724513E-01    0.494411761602386368E+00   -0.248022883830445267E+02
    0.357529305379464313E+00    0.310358643791461691E-01    0.527079231251709079E+00   -0.247044036807444058E+02
    0.398576683674534693E-01    0.142287991533188801E+00    0.794922251379932554E+00   -0.245039154470769631E+02
    0.420857183968249116E+00    0.303243842970626204E-01    0.529682064809348652E+00   -0.240349915054785583E+02
    0.767611041469671851E-01    0.948308032747915558E-01    0.704666760694591554E+00   -0.240343778812071491E+02
    0.462926307378507318E+00    0.829048193635005017E-02    0.483683135227686911E+00   -0.240061604177132040E+02
    0.173318642083626989E+00    0.890078824356754922E-01    0.694759103578532211E+00   -0.239674950653523524E+02
    0.368231565728326826E+00    0.267913431619838070E-01    0.523093869659419952E+00   -0.238979800794359676E+02
    0.375274065090086595E+00    0.235460469899227906E-01    0.575673016722908937E+00   -0.237869653623749855E+02
    0.454979996916691914E-01    0.640259668693838324E-01    0.597209936327647517E+00   -0.237775860413814257E+02
    0.306676532323077622E+00    0.281276472478042029E-01    0.583402572316493173E+00   -0.236828957923470398E+02
    0.564827030900377017E-01    0.401821913949232043E-01    0.597779950205903465E+00   -0.235995991496775446E+02
    0.168908788313643810E+00    0.893530655702512028E-01    0.647915207785487834E+00   -0.235879342470972801E+02
    0.899498926054450310E-01    0.119543010645491513E+00    0.710389939355302480E+00   -0.234112600906275361E+02
    0.839831233024597168E-01    0.702115139140460087E-01    0.653632560300112075E+00   -0.233136775775990941E+02
    0.120984887990536385E-01    0.151244902722621227E+00    0.797735144517399575E+00   -0.232765302417379303E+02
    0.344688616731034070E+00    0.437334207623706755E-01    0.559808951012149447E+00   -0.232624952024004301E+02
    0.348655828491891806E+00    0.975565416529912410E-02    0.489778251656130648E+00   -0.232617097899649252E+02
    0.119514115888512129E+00    0.383532549516135135E-01    0.592809593335622442E+00   -0.232354322055862781E+02
    0.358514627123693641E+00    0.372127301668067900E-01    0.594141793956428410E+00   -0.231858719637797890E+02
    0.312054695305327090E+00    0.387466142798742891E-01    0.596842627394614689E+00   -0.231845784758529021E+02
    0.405984763946131033E+00    0.333352636143610867E-01    0.540762652576001757E+00   -0.231597769144928520E+02
    0.654001307198848747E-01    0.868345696323405691E-01    0.647062947055551785E+00   -0.231345539799631865E+02
    0.132954989997260936E+00    0.552493838953549213E-01    0.624564468088715796E+00   -0.231070221444339836E+02
    0.110182680637895880E+00    0.582752075765861841E-01    0.590320361261268745E+00   -0.230976252108770836E+02
    0.628716756560427636E-01    0.819139083405731189E-01    0.637028662575749305E+00   -0.230824914180804512E+02
    0.114722140425134053E+00    0.181147647093288927E-01    0.512933699714736679E+00   -0.230658339290841354E+02
    0.222777783870697021E+00    0.691868499789194402E-01    0.651989456542091395E+00   -0.230486264987727623E+02
    0.163609826966974840E-01    0.148329109405160864E+00    0.776686876253471548E+00   -0.230381429978656911E+02
    0.119186985663833900E+00    0.101288337115006219E+00    0.676744842800327207E+00   -0.230178789401989548E+02
    0.171361574630244484E+00    0.449670745156019597E-01    0.605428640883842739E+00   -0.230148584407534713E+02
    0.236646729994205614E-02    0.664187799970149539E-01    0.641698991686339815E+00   -0.229980986655614856E+02
    0.180179019466835177E+00    0.543076968309065891E-01    0.582718483059001646E+00   -0.229643928097180492E+02
    0.313711416946620636E+00    0.447273509695812754E-01    0.564173154745604921E+00   -0.229610969392726361E+02
    0.222877028505553201E-01    0.121286953690103963E+00    0.742705952181230367E+00   -0.229592093513866189E+02
    0.961738345209005446E-01    0.604411146085399795E-01    0.632360796700287997E+00   -0.229312674156337266E+02
    0.139063428270171430E+00    0.939994009724294255E-01    0.662881236095598458E+00   -0.228954718361994196E+02
    0.197707263965390179E+00    0.283039384770175061E-01    0.577746652049357379E+00   -0.228953971551983386E+02
    0.303984063388023307E+00    0.378698696029101251E-01    0.592857284050317790E+00   -0.228864941704995886E+02
    0.297094027488787715E+00    0.297037228127381460E-01    0.535982400557130756E+00   -0.228190970256679861E+02
    0.189252375588668698E+00    0.980466770515451974E-01    0.702839037460993299E+00   -0.228148068834566971E+02
    0.269090111556305245E+00    0.237293679836268548E-01    0.569270409588096493E+00   -0.227852847327736754E+02
    0.190821480672566407E+00    0.390695509901717933E-01    0.554836623213316393E+00   -0.227757047247712876E+02
    0.190821480672566407E+00    0.390695509901717933E-01    0.554836623213316393E+00   -0.227757047247712876E+02
    0.126932765741568254E+00    0.710544064492523580E-01    0.618252866839753112E+00   -0.227248640807806055E+02
    0.299126188206491006E+00    0.666758764475285743E-03    0.475725352780071609E+00   -0.227027020872079675E+02
    0.231200814526236587E+00    0.702136951131120263E-01    0.617198006874682403E+00   -0.226771259042157567E+02
    0.231200814526236587E+00    0.702136951131120263E-01    0.617198006874682403E+00   -0.226771259042157567E+02
    0.161187871757964118E+00    0.380302388184214704E-01    0.554040807792587020E+00   -0.226628948420937490E+02
    0.437025689948047497E-01    0.129399908339115993E+00    0.744166299535180986E+00   -0.226491861469887112E+02
    0.230578973236754164E+00    0.584250336814140028E-01    0.594384110006329847E+00   -0.225978391043941542E+02
    0.230578973236754164E+00    0.584250336814140028E-01    0.594384110006329847E+00   -0.225978391043941542E+02
    0.303620381779413195E+00    0.355779640151633672E-01    0.586140202583920189E+00   -0.225853827768368660E+02
    0.254193331949664814E+00    0.559777670096395230E-01    0.589378833153721304E+00   -0.225773127433629384E+02
    0.206223556549776588E+00    0.576014193653758347E-01    0.592897347938717512E+00   -0.225637013862875051E+02
    0.199078851647114669E+00    0.972990429157448988E-01    0.673512564329400210E+00   -0.225502476764071957E+02
    0.275086480523538179E+00    0.108598426299808034E-01    0.542828315030209785E+00   -0.225362613936312073E+02
    0.178769981649163329E+00    0.104392645807197232E+00    0.710817028021340946E+00   -0.225355314907515663E+02
    0.290697458995960334E+00    0.454642814310092028E-01    0.569144502392543661E+00   -0.225342113331009273E+02
    0.443917596405463202E-01    0.108885773727515192E+00    0.714807009075410948E+00   -0.225133612120254725E+02
    0.443917596405463202E-01    0.108885773727515192E+00    0.714807009075410948E+00   -0.225133612120254725E+02
    0.380276632842621587E+00    0.183628018543792286E-01    0.558480804328247871E+00   -0.225083401075003167E+02
    0.339377220740255392E-01    0.216257484187271261E-01    0.527998828795430697E+00   -0.224973844268523067E+02
    0.181909077337679581E+00    0.108590054792249049E+00    0.698640577523511830E+00   -0.224906942657536888E+02
    0.195444095871351115E+00    0.427839144141017869E-01    0.564919795736129604E+00   -0.224704477545336090E+02
    0.241790409461796113E+00    0.301672120001433772E-01    0.573863666450515675E+00   -0.224667208941063450E+02
    0.151920535045585003E+00    0.349644104367719810E-01    0.550596597384244490E+00   -0.224559193678313136E+02
    0.383093151011315858E-01    0.678237119165846225E-01    0.617187308111091570E+00   -0.224528029155430318E+02
    0.140749284396617019E+00    0.333756989993225020E-01    0.548037042976387667E+00   -0.224321753089923845E+02
    0.140749284396617019E+00    0.333756989993225020E-01    0.548037042976387667E+00   -0.224321753089923845E+02
    0.192665935507231961E+00    0.745629395862823091E-01    0.628164390961969743E+00   -0.224032675411158948E+02
    0.230994462966918945E+00    0.727958395331995689E-01    0.625367403181443016E+00   -0.223957810148218073E+02
    0.923520121440884884E-01    0.151767921337017577E-02    0.482278023753643370E+00   -0.223680652719566524E+02
    0.923520121440884884E-01    0.151767921337017577E-02    0.482278023753643370E+00   -0.223680652719566524E+02
    0.103501969100057920E+00    0.101027122138889036E+00    0.684447760597235333E+00   -0.223580372967946346E+02
    0.327434565071939854E+00    0.364122849121622863E-01    0.585638581130671354E+00   -0.223365319495387098E+02
    0.327434565071939854E+00    0.364122849121622863E-01    0.585638581130671354E+00   -0.223365319495387098E+02
    0.978798191495325598E-01    0.577244991121477410E-01    0.620386818342291813E+00   -0.223284077012565945E+02
    0.298528802408339178E+00    0.102180503353188987E-01    0.496799617576714314E+00   -0.222963990292494145E+02
    0.266274500222230884E-01    0.883512396559566759E-01    0.661494657686602761E+00   -0.222944340219248147E+02
    0.296814446717671765E+00    0.179464119364478175E-01    0.517612770967087577E+00   -0.222831536151052774E+02
    0.173190414905548096E+00    0.912307110555836687E-01    0.682808510321927020E+00   -0.222782363635065508E+02
    0.319842183970607485E+00    0.421393438534294409E-01    0.595585657393710832E+00   -0.222686733078748489E+02
    0.222021346005052717E+00    0.602423693479436639E-01    0.601647840733892769E+00   -0.222668657051004288E+02
    0.203191783934599968E+00    0.585443106304623304E-01    0.598483128838289247E+00   -0.222439455151766765E+02
    0.282598954630910115E+00    0.477294785709808933E-01    0.605188134963093205E+00   -0.222296034078017897E+02
    0.282598954630910115E+00    0.477294785709808933E-01    0.605188134963093205E+00   -0.222296034078017897E+02
    0.487033058071176861E+00    0.670740670370943183E-02    0.490954245590327853E+00   -0.222273489479954378E+02
    0.263965769018227880E+00    0.168884494957210248E-02    0.481392629900706137E+00   -0.222254246782879363E+02
    0.263965769018227880E+00    0.168884494957210248E-02    0.481392629900706137E+00   -0.222254246782879363E+02
    0.117191509018182510E+00    0.328126134313694653E-01    0.572225473151567465E+00   -0.222179021310176381E+02
    0.117191509018182510E+00    0.328126134313694653E-01    0.572225473151567465E+00   -0.222179021310176381E+02
    0.336882568909497637E+00    0.228601837045835955E-01    0.564732121193572745E+00   -0.222058282145598014E+02
    0.336882568909497637E+00    0.228601837045835955E-01    0.564732121193572745E+00   -0.222058282145598014E+02
    0.293442304711135082E+00    0.188430831051859399E-01    0.520180457654298878E+00   -0.222003563327153302E+02
    0.293442304711135082E+00    0.188430831051859399E-01    0.520180457654298878E+00   -0.222003563327153302E+02
    0.155490336278385974E-01    0.626827134000300656E-01    0.623207713343129632E+00   -0.221997315087260745E+02
    0.155490336278385974E-01    0.626827134000300656E-01    0.623207713343129632E+00   -0.221997315087260745E+02
    0.270361878847915904E+00    0.756305138309440877E-01    0.633319479035346022E+00   -0.221935177244200190E+02
    0.270361878847915904E+00    0.756305138309440877E-01    0.633319479035346022E+00   -0.221935177244200190E+02
    0.180150750015900279E+00    0.410599129651329359E-01    0.564196025900187137E+00   -0.221870662901584978E+02
    0.180150750015900279E+00    0.410599129651329359E-01    0.564196025900187137E+00   -0.221870662901584978E+02
    0.280437956534006105E+00    0.565766295421538251E-01    0.594384499864249571E+00   -0.221737512960045819E+02
    0.116023953258233614E+00    0.871138016721291486E-01    0.673138769881998833E+00   -0.221736330734325406E+02
    0.116023953258233614E+00    0.871138016721291486E-01    0.673138769881998833E+00   -0.221736330734325406E+02
    0.200538770015988826E+00    0.230556743495545641E-01    0.530188460266419082E+00   -0.221611945122883185E+02
    0.279419074872518547E+00    0.670663638668222567E-01    0.615990080800329354E+00   -0.221581265442499102E+02
    0.387108808699212215E-01    0.633048550589270925E-01    0.624260090991162309E+00   -0.221550712386284090E+02
    0.387108808699212215E-01    0.633048550589270925E-01    0.624260090991162309E+00   -0.221550712386284090E+02
    0.273099084682426954E-01    0.426477337340463725E-01    0.573847440439879342E+00   -0.221504297534307284E+02
    0.827034339847078220E-01    0.721005230811911091E-01    0.642604880627347552E+00   -0.221262437389282809E+02
    0.336435768959644499E+00    0.340436820718177588E-01    0.550599116605421379E+00   -0.221247182799516509E+02
    0.206443628050760775E+00    0.926386770282729838E-01    0.683692684694974906E+00   -0.221013432440709607E+02
    0.880072595710270911E-01    0.418371639864718245E-01    0.569300464142744156E+00   -0.220999281148895648E+02
    0.880072595710270911E-01    0.418371639864718245E-01    0.569300464142744156E+00   -0.220999281148895648E+02
    0.293834181266918348E+00    0.800081094038462663E-02    0.534396538571976665E+00   -0.220957494921653961E+02
    0.971034213468650875E-01    0.626397640855242549E-01    0.626244882683217652E+00   -0.220689134794545794E+02
    0.971034213468650875E-01    0.626397640855242549E-01    0.626244882683217652E+00   -0.220689134794545794E+02
    0.104739291249445088E+00    0.677301102064487848E-01    0.634890649255025030E+00   -0.220653825014711060E+02
    0.104739291249445088E+00    0.677301102064487848E-01    0.634890649255025030E+00   -0.220653825014711060E+02
    0.151238408682587311E+00    0.738069508189246187E-01    0.632059335857730331E+00   -0.220631963007741092E+02
    0.170291080980264214E+00    0.673477380404233772E-01    0.636585590107476729E+00   -0.220626556116793040E+02
    0.860050197038030179E-01    0.296891439820385593E-01    0.561292860861967613E+00   -0.220604188588392276E+02
    0.860050197038030179E-01    0.296891439820385593E-01    0.561292860861967613E+00   -0.220604188588392276E+02
    0.357052844390213786E+00    0.376567701769053506E-01    0.558624714396840805E+00   -0.220505458392572677E+02
    0.357052844390213786E+00    0.376567701769053506E-01    0.558624714396840805E+00   -0.220505458392572677E+02
    0.158014565892179326E+00    0.921775917437049896E-01    0.676186432363766077E+00   -0.220467974219131406E+02
    0.158014565892179326E+00    0.921775917437049896E-01    0.676186432363766077E+00   -0.220467974219131406E+02
    0.148270919287749076E+00    0.886903145170972879E-01    0.673431252005991299E+00   -0.220404773612368103E+02
    0.650413307328264606E-01    0.802566915888622140E-01    0.652004994040880193E+00   -0.220403339700309857E+02
    0.650413307328264606E-01    0.802566915888622140E-01    0.652004994040880193E+00   -0.220403339700309857E+02
    0.210292208704339845E+00    0.793079118729180244E-01    0.644713865982283529E+00   -0.220226377717495438E+02
    0.248419399717167450E+00    0.765528873687123662E-01    0.637863975994178212E+00   -0.220188639949233789E+02
    0.286425594074567080E+00    0.727701774348182284E-01    0.629876035109119270E+00   -0.220075924815017174E+02
    0.142083845843986367E+00    0.702491606985106432E-01    0.639061937831865268E+00   -0.219931671912677871E+02
    0.185409529117072897E+00    0.737735113481929744E-01    0.647510185021380580E+00   -0.219753970932095513E+02
    0.199436240957526323E+00    0.289070840973824003E-01    0.564253698366145251E+00   -0.219733569929367718E+02
    0.327877790157030169E+00    0.147716980703475106E-01    0.508193969829913494E+00   -0.219630946303925612E+02
    0.243195802733148947E+00    0.259824184533996513E-01    0.559614485739262979E+00   -0.219474557147272549E+02
    0.100924865774834810E+00    0.406495510612862113E-01    0.580283693475740714E+00   -0.219375011041358334E+02
    0.144749231120070487E+00    0.472283119217168784E-01    0.582136455750387305E+00   -0.219206369750198178E+02
    0.144749231120070487E+00    0.472283119217168784E-01    0.582136455750387305E+00   -0.219206369750198178E+02
    0.274056123766937110E+00    0.452285039278397527E-01    0.596702780928458409E+00   -0.219195164726325515E+02
    0.274056123766937110E+00    0.452285039278397527E-01    0.596702780928458409E+00   -0.219195164726325515E+02
    0.128835296123011228E+00    0.348855803820543181E-01    0.558945016145631302E+00   -0.219132489718196553E+02
    0.128835296123011228E+00    0.348855803820543181E-01    0.558945016145631302E+00   -0.219132489718196553E+02
    0.293136804308293197E+00    0.603825490784204721E-01    0.624703915776469110E+00   -0.219115504827923928E+02
    0.218940237163340296E+00    0.555523018244205094E-01    0.597337448195802923E+00   -0.219101165127638637E+02
    0.218940237163340296E+00    0.555523018244205094E-01    0.597337448195802923E+00   -0.219101165127638637E+02
    0.262023066876474475E+00    0.787560564142486819E-01    0.646655618394344156E+00   -0.219064843111123650E+02
    0.414244057895056805E+00    0.131004883025966912E-01    0.544387271280997287E+00   -0.219036110286217536E+02
    0.414244057895056805E+00    0.131004883025966912E-01    0.544387271280997287E+00   -0.219036110286217536E+02
    0.290074964358434995E+00    0.343543219695730886E-01    0.576071173736093511E+00   -0.218911167084892782E+02
    0.221358608559814318E+00    0.566254541749768789E-01    0.599854329971803546E+00   -0.218895925195382119E+02
    0.287639403585659759E+00    0.603077214186629740E-01    0.606570495301822721E+00   -0.218697488403033162E+02
    0.309966464922358020E+00    0.325465313424404823E-01    0.551258980680136013E+00   -0.218566342808326795E+02
    0.232823199163729316E+00    0.433960093556373105E-01    0.590753007967966370E+00   -0.218538668873725896E+02
    0.193001104982995469E+00    0.682686535559640095E-01    0.634217835902787019E+00   -0.218518240382534827E+02
    0.319371585514587775E+00    0.629219468727424125E-01    0.612830774772403886E+00   -0.218515199150662625E+02
    0.278667287377477146E+00    0.345943263862657224E-01    0.555213518991893418E+00   -0.218472280328488182E+02
    0.278667287377477146E+00    0.345943263862657224E-01    0.555213518991893418E+00   -0.218472280328488182E+02
    0.119152693266303566E+00    0.286318792219423975E-01    0.549578309933716924E+00   -0.218408445097508661E+02
    0.228097071501899035E+00    0.747454424168114973E-01    0.646145699131159601E+00   -0.218397747679107965E+02
    0.155979716281530345E+00    0.541239493492247439E-01    0.607617018421673927E+00   -0.218389047524089506E+02
    0.156355272986129723E+00    0.632927348188062483E-01    0.623233872129924760E+00   -0.218234342080457395E+02
    0.156355272986129723E+00    0.632927348188062483E-01    0.623233872129924760E+00   -0.218234342080457395E+02
    0.350721722361185484E+00    0.428647816010257893E-01    0.572036320411263288E+00   -0.218216023111700110E+02
    0.370111049252834667E+00    0.297431004123555054E-01    0.567755215854511386E+00   -0.218194409855399840E+02
    0.271267102882308153E+00    0.765990958584177040E-01    0.646918353437228255E+00   -0.218130243259682288E+02
    0.276178049364603773E+00    0.687730421790777730E-01    0.637596223521441852E+00   -0.218092683907804599E+02
    0.142061362272682845E+00    0.451232107787712874E-01    0.589729689241802024E+00   -0.218045942493942562E+02
    0.214705616842226443E+00    0.538946869374262658E-01    0.594954516349270435E+00   -0.218040208944859728E+02
    0.214705616842226443E+00    0.538946869374262658E-01    0.594954516349270435E+00   -0.218040208944859728E+02
    0.177637612980646453E+00    0.588064266192393423E-01    0.606920686232047757E+00   -0.217976942212579274E+02
    0.322504939910406629E+00    0.312603462216735836E-01    0.569510195904261551E+00   -0.217855869874837822E+02
    0.266348830271233183E+00    0.494578984481742479E-01    0.601757353835413511E+00   -0.217829242888647627E+02
    0.210859177605332793E+00    0.677821501135622978E-01    0.630922220014821455E+00   -0.217815774489743603E+02
    0.144441613169124683E+00    0.277662545695534467E-01    0.554275874715295935E+00   -0.217797626957208763E+02
    0.145040074177011813E+00    0.178544536830460392E-01    0.547098900832458601E+00   -0.217746938152846496E+02
    0.353295221384489544E+00    0.478630092872181761E-02    0.490357215549740266E+00   -0.217634750587841381E+02
    0.151229527329930002E+00    0.137688478438874936E-02    0.487149738031080637E+00   -0.217511652590776521E+02
    0.151229527329930002E+00    0.137688478438874936E-02    0.487149738031080637E+00   -0.217511652590776521E+02
    0.286103464518059902E+00    0.337766072796071223E-01    0.572736285745759632E+00   -0.217510835858242331E+02
    0.242346184580806645E+00    0.593324658932374849E-01    0.607144591795546917E+00   -0.217493988664411404E+02
    0.239342717100516661E+00    0.660726821572906464E-01    0.629354899137058665E+00   -0.217482760396580375E+02
    0.184829726610367895E+00    0.245770889808177156E-01    0.550473767406427061E+00   -0.217448448516907433E+02
    0.421233101739388216E+00    0.181500689017745666E-01    0.552715368634273618E+00   -0.217402827208329654E+02
    0.333351467274418001E+00    0.188486731224766085E-01    0.525787508855560470E+00   -0.217358206034927548E+02
    0.329790104813938334E+00    0.415068243756272562E-01    0.587652580020563642E+00   -0.217278936935303477E+02
    0.164568561465198132E+00    0.256322110799575391E-01    0.562638278214623644E+00   -0.217270833564904251E+02
    0.125741470552927614E+00    0.157640514005008489E-01    0.541610777937687971E+00   -0.217216834312599758E+02
    0.249871249584433380E+00    0.139116818347458059E-01    0.541906666271132709E+00   -0.217172572198793432E+02
    0.247403135658339962E+00    0.303013509448792108E-01    0.550092417597055738E+00   -0.217126087256756932E+02
    0.429959418038212138E+00    0.230256707354371433E-01    0.534425040178274191E+00   -0.216995278161302281E+02
    0.271923063693879974E+00    0.100568750738607906E-01    0.534585645444289659E+00   -0.216900456130432531E+02
    0.364473720667235157E+00    0.384588062325991950E-01    0.581829166154487543E+00   -0.216825393182952553E+02
    0.269523722705872826E+00    0.497206322134831416E-01    0.588920996016183862E+00   -0.216806983919365734E+02
    0.213072072265358153E+00    0.392714892660985665E-01    0.570356549300826243E+00   -0.216748428757443321E+02
    0.123897059744425775E+00    0.227257624404864043E-01    0.554590474571411640E+00   -0.216706891882324726E+02
    0.825577881645226108E-01    0.225710602706415721E-01    0.552262391139720421E+00   -0.216638724823326356E+02
    0.964559321153325294E-01    0.247718329662731038E-01    0.557303461601097117E+00   -0.216604692715529836E+02
    0.246834154434620118E+00    0.481656558113232741E-01    0.586761439741583679E+00   -0.216591284638040520E+02
    0.301784648253681398E+00    0.280246218191863503E-01    0.545554438214520876E+00   -0.216586730192930759E+02
    0.305910539755421484E+00    0.264227956205034947E-01    0.542610057582596728E+00   -0.216561968275337335E+02
    0.608748079748270554E-01    0.173593624009450928E-01    0.521385132000518281E+00   -0.216465128199018864E+02
    0.305872287551570365E+00    0.293850517495184739E-01    0.562533231476416318E+00   -0.216455334716169432E+02
    0.237382667067222608E+00    0.427567372091049447E-01    0.577597277750414362E+00   -0.216455081032242447E+02
    0.414989027766214713E+00    0.161361647526111068E-01    0.547971340267459972E+00   -0.216442491024986339E+02
    0.342162878356191913E+00    0.249420636275887869E-01    0.539307599858592890E+00   -0.216348704825663276E+02
    0.101609143075940891E+00    0.141848836001081495E-01    0.513567427999562676E+00   -0.216291969801649202E+02
    0.243265811692555012E+00    0.326505345575611519E-01    0.557515014305384971E+00   -0.216218390326312715E+02
    0.253471947571643430E+00    0.267490390017487457E-01    0.544835170505744371E+00   -0.216178671056687222E+02
    0.220027846148491191E+00    0.380910526780159284E-01    0.573678894690757168E+00   -0.216135358330312215E+02
    0.361835533635207929E+00    0.438139138383094387E-01    0.577480578441327719E+00   -0.216118806092700311E+02
    0.232083204576602614E+00    0.260745188748245683E-01    0.544663450654818138E+00   -0.216079389620054485E+02
    0.376156677070607182E+00    0.338639622485029379E-01    0.558252015427937232E+00   -0.215653625794997765E+02
    0.294232015719786244E+00    0.454356196231259571E-01    0.583875327003026579E+00   -0.215630556089591323E+02
    0.122009584836730328E+00    0.428724508229216209E-02    0.515910312152182193E+00   -0.215622345996886224E+02
    0.359332649240845181E+00    0.365007535100232150E-01    0.564634699056734024E+00   -0.215593931489011652E+02
    0.388496376635406482E+00    0.271213500229494954E-01    0.558437625037559449E+00   -0.215507007252649032E+02
    0.472546627405115882E+00    0.287434368272589634E-02    0.488786127991570951E+00   -0.215495354273379007E+02
    0.386745525953860858E+00    0.294897334632223604E-01    0.562601042064443502E+00   -0.215384964752024075E+02
    0.341978936024434410E+00    0.419814903108342158E-01    0.580652922281738926E+00   -0.215095015062316293E+02
    0.316034678010001069E+00    0.419885085837287050E-01    0.580621482427970625E+00   -0.215071780876197067E+02
    0.336270606469906419E+00    0.365350533244150621E-01    0.567393225331895623E+00   -0.215064367108635111E+02
    0.307854868070773002E+00    0.438682882756280951E-01    0.583616414321538879E+00   -0.215029131901747519E+02
    0.117003179533977764E+00    0.120774361217625050E-01    0.511651064661837851E+00   -0.214998648183435535E+02
    0.412106985975691953E+00    0.229620947265566158E-01    0.549871531744680841E+00   -0.214985624823481771E+02
    0.300306150068231026E+00    0.227557736287485810E-01    0.543106938667720751E+00   -0.214906425052226382E+02
    0.640670595251520980E-01    0.167676004575525897E-02    0.498715509699768633E+00   -0.214819817179497932E+02
    0.446016849745218158E+00    0.106200985144061268E-01    0.504307389663236516E+00   -0.214770474953471648E+02
    0.412100409728579087E+00    0.610385308423987225E-02    0.527180987207237051E+00   -0.214741516626420434E+02
    0.355156906199691980E+00    0.361813946284975929E-01    0.568758968326051106E+00   -0.214584602973276901E+02
    0.359925457470498644E+00    0.960818430618958289E-02    0.532977951441790165E+00   -0.214378217482276341E+02
    0.385934228922083511E+00    0.289125280709730224E-01    0.552409948539151374E+00   -0.214362087187145676E+02
    0.292108576107848683E+00    0.102477709796774952E-01    0.504559178490765037E+00   -0.214263039071225876E+02
    0.333265298740765825E+00    0.229090164382790701E-01    0.557714524203239304E+00   -0.214050569104689430E+02
    0.173700335258541894E+00    0.744462314249252129E-02    0.501769362964240573E+00   -0.213996397882231122E+02
    0.977519113076212032E-01    0.172634701789327639E-01    0.523645760036880237E+00   -0.213971965025056079E+02
    0.358464836476403814E+00    0.246133205669788122E-01    0.561178492505790549E+00   -0.213795711768988212E+02
    0.189711182555143021E+00    0.166494472317139687E-01    0.519160401822362783E+00   -0.213792443936520158E+02
    0.271068547816241123E+00    0.108888110678923775E-01    0.532799940975935971E+00   -0.213786356909146207E+02
    0.142551171579859665E+00    0.379090094366063860E-02    0.497678161341572001E+00   -0.213404429263694055E+02
    0.190325468593125907E+00    0.217051428986205072E-02    0.493074742140972355E+00   -0.213401438995763328E+02
    0.444931455065267323E+00    0.947532363650786455E-02    0.503535297961462791E+00   -0.213395141212419048E+02
    0.413825747515483733E+00    0.152608308335075021E-01    0.543229841821746162E+00   -0.213340095566832133E+02
    0.927102382379716705E-01    0.715538115097961048E-02    0.514291833612443128E+00   -0.213308260508395051E+02
    0.162406605443747493E+00    0.376687035663238884E-02    0.497170140471088040E+00   -0.213220624066173059E+02
    0.249822982613379763E+00    0.163075996411880982E-01    0.517886383115154447E+00   -0.213212013139248029E+02
    0.437685287234968357E+00    0.162712577678347271E-01    0.517665957425127443E+00   -0.212702607507181938E+02
    0.218594040171794263E+00    0.135298492755751010E-01    0.534819979641211085E+00   -0.212686160723734474E+02
    0.104506974556512727E+00    0.124017703824733025E-01    0.519149737975841186E+00   -0.212650294758543623E+02
    0.180646855651501653E+00    0.101495415922018307E-01    0.525611942688708922E+00   -0.212476403168326442E+02
    0.412875331286060576E+00    0.139691080269622198E-01    0.539766007128090752E+00   -0.212437641464980516E+02
    0.281874546491293843E+00    0.168038216593372827E-01    0.520222933285571898E+00   -0.212144488765345614E+02
    0.143031920412496655E+00    0.929170781610210462E-05    0.497964772336030259E+00   -0.212071217847329763E+02
    0.396434823869240616E+00    0.175770971549821624E-01    0.545768811042695257E+00   -0.211972052062491230E+02
    0.380080549875682239E+00    0.768329596312806486E-02    0.526447791612977389E+00   -0.211814165304836024E+02
    0.159173113070631284E+00    0.113174698328436449E-01    0.525431597680160234E+00   -0.211784454550576129E+02
    0.334564277089464401E+00    0.173070560330329387E-01    0.520900798693178291E+00   -0.211701078535839997E+02
    0.172437746455894353E+00    0.205567664429856453E-01    0.543862651503629557E+00   -0.211494177624529129E+02
    0.484428966231674973E+00    0.243982154446711289E-02    0.492410716037615714E+00   -0.211481675730982488E+02
    0.367259068740699579E+00    0.177923257490557839E-01    0.545150023293112129E+00   -0.211426838883461414E+02
    0.415824919446978580E+00    0.178316438426041370E-01    0.545698771952630723E+00   -0.211213126405323237E+02
    0.378234931001040664E+00    0.232261019040461737E-01    0.555559559046511775E+00   -0.211202042930789275E+02
    0.237016703347259328E+00    0.508584097461997012E-02    0.510928254550506389E+00   -0.209546494021070657E+02
    0.201266966124056729E+00    0.162324597799158154E-02    0.497731375116470309E+00   -0.210825456020644424E+02
    0.208719705431536201E+00    0.728640930877209794E-02    0.513427175661449131E+00   -0.210012556563957560E+02
    0.179763999788944862E+00    0.143603497166698794E-01    0.521604665595097217E+00   -0.210633608270957211E+02
    0.169555724951061138E+00    0.102470481099211867E-01    0.515910724015782973E+00   -0.210922970536569210E+02
    0.148417272449993282E+00    0.137742824237386922E-01    0.523005627168219522E+00   -0.210998274366477290E+02
    0.247119801603574246E+00    0.973234276174701589E-02    0.514775059682617275E+00   -0.209245421616357135E+02
    0.221585130312029921E+00    0.210167288103679725E-01    0.541142465010377882E+00   -0.209440115267545934E+02
    0.211951618930473373E+00    0.180816742314080132E-01    0.533498086174891251E+00   -0.209525601872931020E+02
    0.226935279059650108E+00    0.135340275288087387E-01    0.521323606372759207E+00   -0.209349573603500403E+02
    0.181422825915747488E+00    0.162072089372332535E-01    0.532865356205242113E+00   -0.210762449449368887E+02
    0.252153394563521427E+00    0.119072756176844818E-01    0.520256380129495710E+00   -0.208917093414635247E+02
    0.202865378312023087E+00    0.118515421586385377E-01    0.520073420202203041E+00   -0.209709697454051138E+02
    0.220384005745972472E+00    0.127349693922929538E-01    0.518351994814547967E+00   -0.210180715566905292E+02
    0.229764133848309127E+00    0.196858513813803065E-01    0.531060805100509903E+00   -0.209819529672142835E+02
    0.171385605005805852E+00    0.355485703042051878E-02    0.503650604332110619E+00   -0.210943036660024745E+02
    0.362521168146355044E+00    0.285917860214870024E-02    0.515305174039753955E+00   -0.210715799820222855E+02
    0.273379012037792912E+00    0.256910782738471082E-02    0.503142946086448495E+00   -0.208512161267786951E+02
    0.271899616097950769E+00    0.514141494131615650E-02    0.510505403847772765E+00   -0.208544954156383255E+02
    0.265263984730556290E+00    0.323907055835790042E-02    0.506408590540985526E+00   -0.208698421658588131E+02
    0.312426819479890483E+00    0.250212397592993819E-02    0.512202170883836905E+00   -0.210191822241694126E+02
    0.335294900745010005E+00    0.237501097963123766E-03    0.506343254840389112E+00   -0.209168705860328146E+02
    0.354602263455290723E+00    0.959720766708343684E-03    0.507784658045645543E+00   -0.208780361958974936E+02
    0.287691251199466036E+00    0.721858902508541473E-02    0.521503823978744729E+00   -0.210749241892768850E+02
    0.359320469531355546E+00    0.171631378267962783E-02    0.498424613287481388E+00   -0.207758384384623014E+02
    0.323849787079036444E+00    0.217925441618755647E-02    0.493745048236729100E+00   -0.210798159407150933E+02
    0.299909949238662432E+00    0.578349654581499471E-02    0.502604479490755707E+00   -0.209795575027875429E+02
    0.328004181385040283E+00    0.102102636167273886E-01    0.519432687862506626E+00   -0.207494456081509497E+02
    0.327526193092062545E+00    0.105664723988461839E-01    0.523477920176333988E+00   -0.208044488908886933E+02
    0.301995237279114925E+00    0.986268907324786871E-02    0.519120150420760762E+00   -0.207833027871926106E+02
    0.304392479819355743E+00    0.123533160959327353E-01    0.531889902107454571E+00   -0.210528562193936750E+02
    0.334307457504242511E+00    0.105970031684385502E-01    0.511135507422573299E+00   -0.209708800142526570E+02
    0.316616313551913442E+00    0.100188512409805346E-01    0.518467584412711346E+00   -0.207611772381056880E+02
    0.414387291091740273E+00    0.778203614827274997E-02    0.512977754894034077E+00   -0.206849824081372162E+02
    0.400786888847825984E+00    0.774894925015120594E-02    0.525437549748382082E+00   -0.210719285865939128E+02
    0.393203565754359219E+00    0.142295656167762772E-01    0.532640979016042349E+00   -0.207949118943878375E+02
    0.384560031975145877E+00    0.111108051252183336E-01    0.523988201669630560E+00   -0.207249538782970149E+02
    0.402450069817521294E+00    0.107099043001403719E-01    0.515692816105174368E+00   -0.207540573783113587E+02
    0.397868690363322397E+00    0.965826433663553776E-03    0.503833331563979026E+00   -0.207079890532236277E+02
    0.397868690363322397E+00    0.965826433663553776E-03    0.503833331563979026E+00   -0.207079890532236277E+02
    0.368435473903841348E+00    0.803137293737021113E-02    0.511474209176111416E+00   -0.207517778201214469E+02
    0.358150522099770163E+00    0.159384789378208790E-01    0.520234352098734920E+00   -0.210130465622152087E+02
    0.451742908104913132E+00    0.836229372497730196E-02    0.505735364351929895E+00   -0.209933040101358301E+02
    0.433940588928291238E+00    0.111047427124231074E-01    0.528400680796416333E+00   -0.208353682090905750E+02
    0.442331577810106347E+00    0.147668643720573521E-02    0.514120959812876754E+00   -0.210796565395178277E+02
    0.483952984981009859E+00    0.148272278536956312E-02    0.499384827897479122E+00   -0.206937153207959454E+02
    0.469739589034419480E+00    0.497165636407934011E-02    0.503087420672481134E+00   -0.207842101600303977E+02
    0.464798674113070631E+00    0.112783418925256661E-02    0.509488923858765541E+00   -0.208289368847074456E+02
    0.466231455707654341E+00    0.180401151306276925E-02    0.510878333169428211E+00   -0.208333007328585609E+02
    0.457005452607327056E+00    0.504869338115288523E-02    0.513435330617655006E+00   -0.206998000487294576E+02
    0.457005452607327056E+00    0.504869338115288523E-02    0.513435330617655006E+00   -0.206998000487294576E+02
    0.368470651220089929E+00    0.121699621102630516E-01    0.523335708637902242E+00   -0.207159538670927077E+02
    0.368470651220089929E+00    0.121699621102630516E-01    0.523335708637902242E+00   -0.207159538670927077E+02
    0.417187543685586415E+00    0.326436772131344973E-02    0.515160127017039282E+00   -0.209457995213635968E+02
    0.391628870988762201E+00    0.153546786855745694E-01    0.540458174428934734E+00   -0.211128333679379239E+02
    0.395939845144994862E+00    0.187699505384959775E-01    0.536815166425031132E+00   -0.207023525897308218E+02
    0.397617061015991258E+00    0.210207546794382236E-01    0.540659286334533418E+00   -0.206978833179488220E+02
    0.397617061015991258E+00    0.210207546794382236E-01    0.540659286334533418E+00   -0.206978833179488220E+02
    0.411448260124642695E+00    0.183953268769265314E-01    0.542531000018256382E+00   -0.208685490325668752E+02
    0.441902778797489015E+00    0.185782792611403867E-01    0.533817819232788149E+00   -0.206817149514653238E+02
    0.422746451715978411E+00    0.186113603825941686E-01    0.541759389436585637E+00   -0.208110598026877369E+02
    0.431154353633502851E+00    0.176050059851015003E-01    0.533057640232289409E+00   -0.206729622322171736E+02
    0.455146085268606559E+00    0.153841871531305990E-01    0.525308764536083217E+00   -0.207266334498025344E+02
    0.454835740135812072E+00    0.159777983702394343E-01    0.523980732093612511E+00   -0.208301253886198765E+02
    0.358579807393558214E+00    0.187112186727078911E-01    0.533938764252526732E+00   -0.207363214841444687E+02
    0.317126600422538374E+00    0.197409660719599471E-01    0.545492594844602885E+00   -0.209738687363093277E+02
    0.409938547162591926E+00    0.123517548287209906E-01    0.529514250705754974E+00   -0.208084718323597144E+02
    0.383919998856616207E+00    0.104717714880685781E-01    0.516221310767771002E+00   -0.207368861926439649E+02
    0.454318621743303064E+00    0.107561263002658117E-01    0.522392674240436561E+00   -0.206705225985256220E+02
    0.369860712330802643E+00    0.843392731768440214E-02    0.518899708320999187E+00   -0.207393249114874152E+02
    0.371790452223703494E+00    0.688137476311475021E-02    0.517179360633636009E+00   -0.207759110097039184E+02
    0.371790452223703494E+00    0.688137476311475021E-02    0.517179360633636009E+00   -0.207759110097039184E+02
    0.438306984782798725E+00    0.199675045563766978E-02    0.496272212906151866E+00   -0.208414523871550728E+02
    0.446154317995375360E+00    0.132230405424662925E-01    0.534491462389131589E+00   -0.209415184048352785E+02
    0.308246877816487075E+00    0.179715876859770050E-01    0.532031813477460314E+00   -0.207670159012396880E+02
    0.428185427502081828E+00    0.744316467056257980E-02    0.524565306847950108E+00   -0.210225546374715577E+02
    0.443932650451438426E+00    0.799640137693823777E-02    0.515193440354719145E+00   -0.206578381218473623E+02
    0.476395932168034220E+00    0.983325670861600817E-02    0.507412795515569282E+00   -0.210856769580176433E+02
    0.430340330643764868E+00    0.429761273911437314E-02    0.519690721490132179E+00   -0.211077598748963737E+02
    0.341868983993012687E+00    0.194499158527707654E-01    0.532347235024578591E+00   -0.207842181186225616E+02
    0.414158440308899145E+00    0.145222338208453768E-01    0.538609648081421200E+00   -0.210704629476981609E+02
    0.457804126219496288E+00    0.165601769973378402E-02    0.501465367101148418E+00   -0.206664930542988259E+02
    0.457804126219496288E+00    0.165601769973378402E-02    0.501465367101148418E+00   -0.206664930542988259E+02
    0.425283138646639802E+00    0.122461784057141549E-01    0.524042454876587405E+00   -0.206760975991863916E+02
    0.425283138646639802E+00    0.122461784057141549E-01    0.524042454876587405E+00   -0.206760975991863916E+02
    0.401086084733724424E+00    0.221394150469484763E-02    0.507425175292649966E+00   -0.207302234456087717E+02
    0.414979330666225499E+00    0.218035046969833786E-01    0.548742314856809021E+00   -0.208533092139522296E+02
    0.277256988525420467E+00    0.140756071496343487E-01    0.528344778299745688E+00   -0.208366664106234794E+02
    0.433069643991308428E+00    0.949481007804818360E-02    0.522487751566613423E+00   -0.207290287547816661E+02
    0.421129572224645643E+00    0.266368965516190943E-02    0.501857011362781269E+00   -0.207089902685773950E+02
    0.423364683616968995E+00    0.136792482694638087E-01    0.523431005683384520E+00   -0.206881274607302430E+02
    0.376867223848255439E+00    0.142156032082912612E-01    0.523317310542486869E+00   -0.207346925065972982E+02
    0.354532214784382238E+00    0.265942814907490273E-02    0.510693154702058005E+00   -0.208615028450375348E+02
    0.470088798786877260E+00    0.699975704749238817E-02    0.505000093638286129E+00   -0.208928495113112831E+02
    0.268249028682422286E+00    0.865802766948415951E-02    0.506963146585102220E+00   -0.210792296465184563E+02
    0.378631330290165047E+00    0.766562517296441679E-02    0.504956470220258136E+00   -0.209660781193448429E+02
    0.338483031962532765E+00    0.841731058571673109E-02    0.513912972418893887E+00   -0.207476688811763097E+02
    0.338483031962532765E+00    0.841731058571673109E-02    0.513912972418893887E+00   -0.207476688811763097E+02
    0.409658345144549685E+00    0.134597578148638484E-02    0.506289842572387849E+00   -0.207362820749490311E+02
    0.405951852506530764E+00    0.554912258259253788E-03    0.505651500042644142E+00   -0.207679209843604440E+02
    0.388928011339831570E+00    0.836114428091479754E-02    0.526561722238098939E+00   -0.210788832947123410E+02
